digraph Tree {
node [shape=box] ;
0 [label="X[15] <= 0.5\ngini = 0.497\nsamples = 240\nvalue = [110, 130]"] ;
1 [label="X[8] <= 0.7\ngini = 0.37\nsamples = 106\nvalue = [80, 26]"] ;
0 -> 1 [labeldistance=2.5, labelangle=45, headlabel="True"] ;
2 [label="X[9] <= 0.5\ngini = 0.498\nsamples = 34\nvalue = [16, 18]"] ;
1 -> 2 ;
3 [label="X[0] <= 42.0\ngini = 0.36\nsamples = 17\nvalue = [4, 13]"] ;
2 -> 3 ;
4 [label="gini = 0.0\nsamples = 2\nvalue = [2, 0]"] ;
3 -> 4 ;
5 [label="X[3] <= 266.0\ngini = 0.231\nsamples = 15\nvalue = [2, 13]"] ;
3 -> 5 ;
6 [label="gini = 0.0\nsamples = 11\nvalue = [0, 11]"] ;
5 -> 6 ;
7 [label="X[3] <= 298.5\ngini = 0.5\nsamples = 4\nvalue = [2, 2]"] ;
5 -> 7 ;
8 [label="gini = 0.0\nsamples = 2\nvalue = [2, 0]"] ;
7 -> 8 ;
9 [label="gini = 0.0\nsamples = 2\nvalue = [0, 2]"] ;
7 -> 9 ;
10 [label="X[3] <= 228.0\ngini = 0.415\nsamples = 17\nvalue = [12, 5]"] ;
2 -> 10 ;
11 [label="X[0] <= 58.5\ngini = 0.48\nsamples = 5\nvalue = [2, 3]"] ;
10 -> 11 ;
12 [label="gini = 0.0\nsamples = 3\nvalue = [0, 3]"] ;
11 -> 12 ;
13 [label="gini = 0.0\nsamples = 2\nvalue = [2, 0]"] ;
11 -> 13 ;
14 [label="X[6] <= 112.5\ngini = 0.278\nsamples = 12\nvalue = [10, 2]"] ;
10 -> 14 ;
15 [label="gini = 0.0\nsamples = 1\nvalue = [0, 1]"] ;
14 -> 15 ;
16 [label="X[2] <= 109.0\ngini = 0.165\nsamples = 11\nvalue = [10, 1]"] ;
14 -> 16 ;
17 [label="X[9] <= 2.0\ngini = 0.5\nsamples = 2\nvalue = [1, 1]"] ;
16 -> 17 ;
18 [label="gini = 0.0\nsamples = 1\nvalue = [1, 0]"] ;
17 -> 18 ;
19 [label="gini = 0.0\nsamples = 1\nvalue = [0, 1]"] ;
17 -> 19 ;
20 [label="gini = 0.0\nsamples = 9\nvalue = [9, 0]"] ;
16 -> 20 ;
21 [label="X[13] <= 0.5\ngini = 0.198\nsamples = 72\nvalue = [64, 8]"] ;
1 -> 21 ;
22 [label="X[6] <= 183.5\ngini = 0.138\nsamples = 67\nvalue = [62, 5]"] ;
21 -> 22 ;
23 [label="X[18] <= 0.5\ngini = 0.114\nsamples = 66\nvalue = [62, 4]"] ;
22 -> 23 ;
24 [label="X[9] <= 2.5\ngini = 0.036\nsamples = 54\nvalue = [53, 1]"] ;
23 -> 24 ;
25 [label="gini = 0.0\nsamples = 47\nvalue = [47, 0]"] ;
24 -> 25 ;
26 [label="X[5] <= 0.5\ngini = 0.245\nsamples = 7\nvalue = [6, 1]"] ;
24 -> 26 ;
27 [label="gini = 0.0\nsamples = 5\nvalue = [5, 0]"] ;
26 -> 27 ;
28 [label="X[6] <= 142.5\ngini = 0.5\nsamples = 2\nvalue = [1, 1]"] ;
26 -> 28 ;
29 [label="gini = 0.0\nsamples = 1\nvalue = [1, 0]"] ;
28 -> 29 ;
30 [label="gini = 0.0\nsamples = 1\nvalue = [0, 1]"] ;
28 -> 30 ;
31 [label="X[0] <= 64.5\ngini = 0.375\nsamples = 12\nvalue = [9, 3]"] ;
23 -> 31 ;
32 [label="X[12] <= 0.5\ngini = 0.18\nsamples = 10\nvalue = [9, 1]"] ;
31 -> 32 ;
33 [label="gini = 0.0\nsamples = 8\nvalue = [8, 0]"] ;
32 -> 33 ;
34 [label="X[9] <= 1.0\ngini = 0.5\nsamples = 2\nvalue = [1, 1]"] ;
32 -> 34 ;
35 [label="gini = 0.0\nsamples = 1\nvalue = [0, 1]"] ;
34 -> 35 ;
36 [label="gini = 0.0\nsamples = 1\nvalue = [1, 0]"] ;
34 -> 36 ;
37 [label="gini = 0.0\nsamples = 2\nvalue = [0, 2]"] ;
31 -> 37 ;
38 [label="gini = 0.0\nsamples = 1\nvalue = [0, 1]"] ;
22 -> 38 ;
39 [label="X[0] <= 48.5\ngini = 0.48\nsamples = 5\nvalue = [2, 3]"] ;
21 -> 39 ;
40 [label="gini = 0.0\nsamples = 2\nvalue = [2, 0]"] ;
39 -> 40 ;
41 [label="gini = 0.0\nsamples = 3\nvalue = [0, 3]"] ;
39 -> 41 ;
42 [label="X[8] <= 2.1\ngini = 0.348\nsamples = 134\nvalue = [30, 104]"] ;
0 -> 42 [labeldistance=2.5, labelangle=-45, headlabel="False"] ;
43 [label="X[9] <= 0.5\ngini = 0.29\nsamples = 125\nvalue = [22, 103]"] ;
42 -> 43 ;
44 [label="X[0] <= 57.5\ngini = 0.16\nsamples = 91\nvalue = [8, 83]"] ;
43 -> 44 ;
45 [label="gini = 0.0\nsamples = 64\nvalue = [0, 64]"] ;
44 -> 45 ;
46 [label="X[4] <= 0.5\ngini = 0.417\nsamples = 27\nvalue = [8, 19]"] ;
44 -> 46 ;
47 [label="X[6] <= 170.0\ngini = 0.472\nsamples = 21\nvalue = [8, 13]"] ;
46 -> 47 ;
48 [label="X[8] <= 0.2\ngini = 0.498\nsamples = 17\nvalue = [8, 9]"] ;
47 -> 48 ;
49 [label="X[6] <= 160.5\ngini = 0.278\nsamples = 6\nvalue = [5, 1]"] ;
48 -> 49 ;
50 [label="gini = 0.0\nsamples = 4\nvalue = [4, 0]"] ;
49 -> 50 ;
51 [label="X[0] <= 61.5\ngini = 0.5\nsamples = 2\nvalue = [1, 1]"] ;
49 -> 51 ;
52 [label="gini = 0.0\nsamples = 1\nvalue = [1, 0]"] ;
51 -> 52 ;
53 [label="gini = 0.0\nsamples = 1\nvalue = [0, 1]"] ;
51 -> 53 ;
54 [label="X[6] <= 152.5\ngini = 0.397\nsamples = 11\nvalue = [3, 8]"] ;
48 -> 54 ;
55 [label="X[6] <= 93.5\ngini = 0.219\nsamples = 8\nvalue = [1, 7]"] ;
54 -> 55 ;
56 [label="gini = 0.0\nsamples = 1\nvalue = [1, 0]"] ;
55 -> 56 ;
57 [label="gini = 0.0\nsamples = 7\nvalue = [0, 7]"] ;
55 -> 57 ;
58 [label="X[8] <= 1.3\ngini = 0.444\nsamples = 3\nvalue = [2, 1]"] ;
54 -> 58 ;
59 [label="gini = 0.0\nsamples = 1\nvalue = [0, 1]"] ;
58 -> 59 ;
60 [label="gini = 0.0\nsamples = 2\nvalue = [2, 0]"] ;
58 -> 60 ;
61 [label="gini = 0.0\nsamples = 4\nvalue = [0, 4]"] ;
47 -> 61 ;
62 [label="gini = 0.0\nsamples = 6\nvalue = [0, 6]"] ;
46 -> 62 ;
63 [label="X[2] <= 139.0\ngini = 0.484\nsamples = 34\nvalue = [14, 20]"] ;
43 -> 63 ;
64 [label="X[12] <= 0.5\ngini = 0.497\nsamples = 26\nvalue = [14, 12]"] ;
63 -> 64 ;
65 [label="X[2] <= 107.0\ngini = 0.455\nsamples = 20\nvalue = [13, 7]"] ;
64 -> 65 ;
66 [label="gini = 0.0\nsamples = 2\nvalue = [0, 2]"] ;
65 -> 66 ;
67 [label="X[2] <= 116.0\ngini = 0.401\nsamples = 18\nvalue = [13, 5]"] ;
65 -> 67 ;
68 [label="gini = 0.0\nsamples = 6\nvalue = [6, 0]"] ;
67 -> 68 ;
69 [label="X[6] <= 160.5\ngini = 0.486\nsamples = 12\nvalue = [7, 5]"] ;
67 -> 69 ;
70 [label="X[4] <= 0.5\ngini = 0.469\nsamples = 8\nvalue = [3, 5]"] ;
69 -> 70 ;
71 [label="gini = 0.0\nsamples = 5\nvalue = [0, 5]"] ;
70 -> 71 ;
72 [label="gini = 0.0\nsamples = 3\nvalue = [3, 0]"] ;
70 -> 72 ;
73 [label="gini = 0.0\nsamples = 4\nvalue = [4, 0]"] ;
69 -> 73 ;
74 [label="X[8] <= 0.55\ngini = 0.278\nsamples = 6\nvalue = [1, 5]"] ;
64 -> 74 ;
75 [label="gini = 0.0\nsamples = 5\nvalue = [0, 5]"] ;
74 -> 75 ;
76 [label="gini = 0.0\nsamples = 1\nvalue = [1, 0]"] ;
74 -> 76 ;
77 [label="gini = 0.0\nsamples = 8\nvalue = [0, 8]"] ;
63 -> 77 ;
78 [label="X[6] <= 173.5\ngini = 0.198\nsamples = 9\nvalue = [8, 1]"] ;
42 -> 78 ;
79 [label="gini = 0.0\nsamples = 8\nvalue = [8, 0]"] ;
78 -> 79 ;
80 [label="gini = 0.0\nsamples = 1\nvalue = [0, 1]"] ;
78 -> 80 ;
}